digraph Tree {
node [shape=box] ;
0 [label="X[27] <= 0.5\ngini = 0.5\nsamples = 6093\nvalue = [3137, 2956]"] ;
1 [label="X[53] <= 0.5\ngini = 0.282\nsamples = 3450\nvalue = [586, 2864]"] ;
0 -> 1 [labeldistance=2.5, labelangle=45, headlabel="True"] ;
2 [label="X[55] <= 0.5\ngini = 0.13\nsamples = 3055\nvalue = [214, 2841]"] ;
1 -> 2 ;
3 [label="X[22] <= 0.5\ngini = 0.05\nsamples = 2916\nvalue = [75, 2841]"] ;
2 -> 3 ;
4 [label="X[25] <= 0.5\ngini = 0.025\nsamples = 2878\nvalue = [37, 2841]"] ;
3 -> 4 ;
5 [label="gini = 0.0\nsamples = 2841\nvalue = [0, 2841]"] ;
4 -> 5 ;
6 [label="gini = 0.0\nsamples = 37\nvalue = [37, 0]"] ;
4 -> 6 ;
7 [label="gini = 0.0\nsamples = 38\nvalue = [38, 0]"] ;
3 -> 7 ;
8 [label="gini = 0.0\nsamples = 139\nvalue = [139, 0]"] ;
2 -> 8 ;
9 [label="X[93] <= 0.5\ngini = 0.11\nsamples = 395\nvalue = [372, 23]"] ;
1 -> 9 ;
10 [label="gini = 0.0\nsamples = 372\nvalue = [372, 0]"] ;
9 -> 10 ;
11 [label="gini = 0.0\nsamples = 23\nvalue = [0, 23]"] ;
9 -> 11 ;
12 [label="X[100] <= 0.5\ngini = 0.067\nsamples = 2643\nvalue = [2551, 92]"] ;
0 -> 12 [labeldistance=2.5, labelangle=-45, headlabel="False"] ;
13 [label="X[63] <= 0.5\ngini = 0.029\nsamples = 2589\nvalue = [2551, 38]"] ;
12 -> 13 ;
14 [label="X[7] <= 0.5\ngini = 0.004\nsamples = 2544\nvalue = [2539, 5]"] ;
13 -> 14 ;
15 [label="X[36] <= 0.5\ngini = 0.001\nsamples = 2540\nvalue = [2539, 1]"] ;
14 -> 15 ;
16 [label="gini = 0.0\nsamples = 2390\nvalue = [2390, 0]"] ;
15 -> 16 ;
17 [label="X[105] <= 0.5\ngini = 0.013\nsamples = 150\nvalue = [149, 1]"] ;
15 -> 17 ;
18 [label="gini = 0.0\nsamples = 149\nvalue = [149, 0]"] ;
17 -> 18 ;
19 [label="gini = 0.0\nsamples = 1\nvalue = [0, 1]"] ;
17 -> 19 ;
20 [label="gini = 0.0\nsamples = 4\nvalue = [0, 4]"] ;
14 -> 20 ;
21 [label="X[68] <= 0.5\ngini = 0.391\nsamples = 45\nvalue = [12, 33]"] ;
13 -> 21 ;
22 [label="gini = 0.0\nsamples = 33\nvalue = [0, 33]"] ;
21 -> 22 ;
23 [label="gini = 0.0\nsamples = 12\nvalue = [12, 0]"] ;
21 -> 23 ;
24 [label="gini = 0.0\nsamples = 54\nvalue = [0, 54]"] ;
12 -> 24 ;
}